#include "EyeTracking.h"

double
xmaxarray_glint[24] = { 589.598000 ,408.095000 ,548.000000 ,474.000000 ,556.000000 ,462.000000 ,519.909000 ,413.585000 ,454.000000 ,476.000000 ,468.000000 ,479.000000 ,531.784000 ,323.661000 ,462.000000 ,396.000000 ,492.000000 ,381.000000 ,601.529000 ,401.336000 ,476.000000 ,470.000000 ,535.000000 ,470.000000 },
xminarray_glint[24] = { 160.375000 ,206.664000 ,205.000000 ,315.000000 ,259.000000 ,313.000000 ,85.248400 ,210.018000 ,120.000000 ,309.000000 ,153.000000 ,300.000000 ,120.748000 ,94.744000 ,164.000000 ,216.000000 ,185.000000 ,207.000000 ,119.817000 ,144.980000 ,147.000000 ,266.000000 ,172.000000 ,257.000000 },

ymaxarray_glint[2] = { 1662.280000 ,872.705000 },
yminarray_glint[2] = { 100.118000 ,51.770000 },

W1_linarray[48] =
{
	-2.408600 ,-0.449623 ,0.396093 ,-0.092872 ,1.721547 ,-0.294599 ,-0.171026 ,0.755979 ,0.142989 ,0.081903 ,0.004685 ,-0.062109 ,-1.179636 ,-0.005985 ,0.069657 ,-0.061713 ,0.683447 ,0.215246 ,-0.667727 ,-0.013137 ,0.445353 ,-0.028323 ,0.080823 ,-0.059689 ,
	2.781573 ,2.546440 ,-0.067537 ,-0.313344 ,-0.613903 ,-0.545410 ,-0.902272 ,-0.716977 ,-0.229311 ,-0.910101 ,0.052880 ,0.059089 ,-0.749217 ,-0.213827 ,0.035835 ,-0.181107 ,0.393592 ,-0.928830 ,-0.327225 ,1.851805 ,-0.246442 ,-0.404529 ,-0.004476 ,-0.050198 ,
},
B1_linarray[2] =
{
	-0.013642 ,
	0.082157 ,
};


